[-0.435900603866338, -0.04226468385445936, 0.6739451004275845, 0.2754677104417331][-0.9965245045090336, -0.14128672174942714, -0.70860072935925, 0.2277372820450192][0.7050465941409167, 0.5625079165120894, 0.4716944780284933, 0.5286359940103174][0.7641961094108158, -0.07746237461857297, -0.05549476701167855, 0.70158483032401][0.44791987190374427, 0.6458747826173785, -0.37050696537260586, -0.6076182791841798][-0.938791005680063, 0.8435812873730895, -0.724025968154659, 0.3993960548731348][0.4920801963077299, 0.597482855787322, 0.6439919075560874, 0.17394341254718348][0.30446087288399704, -0.8397008171286988, -0.29381971767566095, -0.19656346405161096][-0.1993535576087062, 0.9486052198939106, 0.16338864229339145, -0.3784732388894827][0.7485046017226042, 0.22150562356346248, 0.22325037323217867, -0.4148750519922908][0.17588897735443676, -0.2948513697767241, 0.13100682561433463, 0.9769274111289004, -0.5265330415477512, -0.81697096159012, 0.9287292742339825, 0.013583776874219078, 0.3342941220125206, 0.1674777800688887, 0.8483175450204532][0.3886676332056058, -0.8619365321460153, -0.7770769377002282, 0.6630853887040151, -0.18191263982936468, 0.4897721186919817, 0.9378222463710404, -0.3944536630725546, -0.1568765987778491, -0.6250356923271121, -0.12864236357762526][-0.5627406418712246, -0.8041238372499862, -0.012965749531829607, -0.5580019963986509, -0.8181073394227043, -0.9782284155227112, 0.6599923718631657, 0.5914854021793037, -0.18520065562615717, 0.6788572330954299, 0.5497595034050915]