[-0.7150196499551028, -3.728671179340858, 2.214352458552914, -0.001032466007249941, -3.042696382806775, 0.45246841072167227, 4.7043001859949785, -0.9674659830062804, 0.43652498586896776, -0.7668225809157013, -0.09937718259314805][0.21801478629953447, -2.318457652670725, -5.326048662970747, 0.6173233876216738, -0.7326456337030705, 7.265644191957845, -6.152687661034966, -0.4330427549087774, -0.26259172585579027, -0.8744174634397477, -0.0971447014131244][-1.1295774303916208, 3.742879908658782, -1.2600357742469563, -1.068635172584304, 2.1753906078670244, -6.833461603860426, -2.075840964894923, 0.08183336214888254, -0.29534453489747986, 0.2759602424064569, 0.27328108746058305][-1.4345177799296596, -1.619894575487576, 2.0079691720414794, 1.6431350499343291][-0.5364540366342803, 1.3041188258937229, -2.3376833187553605, -0.6023654632945274][0.7085029919746656, 0.5842436786216013, 0.4943153446973931, 0.5364160754454725][0.295119177307248, -0.8589490673169069, 0.8041376745849933, 1.385686223114373][2.7180314887099546, 3.82831877380858, -4.304668653475215, -4.139897635474569][-0.5917704545881006, 1.56167341596965, -2.7591812906438142, -0.6385860098580709][0.49242577862771075, 0.5944287999371789, 0.6279959422957002, 0.16753786101498158][0.32164260695471253, -0.7607217950688502, -0.2822507552568307, -0.19845475137069224][-0.23425454857430353, 0.7724895478921812, 0.007381382510555273, -0.42221232620322635][0.6533608721535006, 0.02969362949749311, 0.20546776664125954, -0.3223529042430928]